net
{
    node_size = (80 40);
    HR_realname_AML = "AML";
    HR_realname_MDS1 = "MDS1";
    HR_realname_MDK = "MDK";
    HR_realname_PCCB = "PCCB";
    HR_realname_ATP2B4 = "ATP2B4";
    HR_realname_NAP1L1 = "NAP1L1";
    HR_Has_Constraints = "yes";
    HR_DBN_Num_Slices = "5";
    HR_Desc = "";
    HR_OOBN_CheckConsistency = "1";
    HR_OOBN_FitExpand = "1";
    HR_Zoom_ZoomFactor = "100";
    HR_Groups_GroupColors = "";
    HR_Groups_GroupNames = "";
    HR_Groups_UserGroupsNo = "0";
    HR_Utility_Link = "63";
    HR_Probabilistic_Link = "63";
    HR_Functional_Link = "63";
    HR_Binding_Link = "63";
    HR_Information_Arc = "63";
    HR_Color_Interface = "21";
    HR_Color_Instance = "0";
    HR_Color_DiscreteFunction = "5";
    HR_Color_Function = "4";
    HR_Color_Utility = "36";
    HR_Color_Decision = "17";
    HR_Color_ContinuousChance = "48";
    HR_Color_DiscreteChance = "16";
    HR_Monitor_InitSD = "2";
    HR_Monitor_Utility_Arrange = "0";
    HR_Monitor_Mean_Variance = "1";
    HR_Monitor_Chance_Utility = "1";
    HR_Monitor_InitStates = "5";
    HR_Monitor_OpenGraph = "0";
    HR_Monitor_GraphPrecision = "100";
    HR_Monitor_AutoUpdGraph = "0";
    HR_Compile_MaxMinimalSeparators = "100000";
    HR_Compile_ApproxEpsilon = "1.0E-5";
    HR_Compile_Approximate = "0";
    HR_Compile_SaveToMemory = "0";
    HR_Compile_Compress = "0";
    HR_Compile_TriangMethod = "0";
    HR_Propagate_AutoNormal = "1";
    HR_Propagate_AutoSum = "1";
    HR_Propagate_Auto = "1";
    HR_Font_Italic = "0";
    HR_Font_Weight = "400";
    HR_Font_Size = "-12";
    HR_Font_Name = "javax.swing.plaf.FontUIResource[family=Dialog,name=Dialog,style=bold,size=12]";
    HR_Grid_GridShow = "0";
    HR_Grid_GridSnap = "0";
    HR_Grid_Y = "40";
    HR_Grid_X = "40";
}

node NAP1L1
{
    position = (50 210);
    states = ("yes" "no");
    HR_Constraint_AML = "Arrow";
    HR_LinkGroup = "[AML:0]";
    HR_LinkMode = "[AML:0]";
}

node ATP2B4
{
    position = (210 190);
    states = ("no" "yes");
    HR_Constraint_AML = "Arrow";
    HR_LinkGroup = "[AML:0]";
    HR_LinkMode = "[AML:0]";
}

node PCCB
{
    position = (90 130);
    states = ("yes" "no");
    HR_Constraint_AML = "Arrow";
    HR_LinkGroup = "[AML:0]";
    HR_LinkMode = "[AML:0]";
}

node MDK
{
    position = (250 110);
    states = ("yes" "no");
    HR_Constraint_AML = "Arrow";
    HR_LinkGroup = "[AML:0]";
    HR_LinkMode = "[AML:0]";
}

node MDS1
{
    position = (50 50);
    states = ("yes" "no");
    HR_Constraint_AML = "Arrow";
    HR_LinkGroup = "[AML:0]";
    HR_LinkMode = "[AML:0]";
}

node AML
{
    position = (210 30);
    states = ("no" "yes");
}

potential (NAP1L1)
{
    data = ( 0.186441 0.813559 );
    experience = 59;
}

potential (ATP2B4)
{
    data = ( 0.779661 0.220339 );
    experience = 59;
}

potential (PCCB)
{
    data = ( 0.813559 0.186441 );
    experience = 59;
}

potential (MDK)
{
    data = ( 0.20339 0.79661 );
    experience = 59;
}

potential (MDS1)
{
    data = ( 0.830508 0.169492 );
    experience = 59;
}

potential (AML | MDS1 MDK PCCB ATP2B4 NAP1L1)
{
    data
     = (((((( 0.984848 0.0151515 )	%  MDS1=yes  MDK=yes  PCCB=yes  ATP2B4=no  NAP1L1=yes
	    ( 0.970588 0.0294118 ))	%  MDS1=yes  MDK=yes  PCCB=yes  ATP2B4=no  NAP1L1=no
	   (( 0.5 0.5 )	%  MDS1=yes  MDK=yes  PCCB=yes  ATP2B4=yes  NAP1L1=yes
	    ( 0.970588 0.0294118 )))	%  MDS1=yes  MDK=yes  PCCB=yes  ATP2B4=yes  NAP1L1=no
	  ((( 0.970588 0.0294118 )	%  MDS1=yes  MDK=yes  PCCB=no  ATP2B4=no  NAP1L1=yes
	    ( 0.984848 0.0151515 ))	%  MDS1=yes  MDK=yes  PCCB=no  ATP2B4=no  NAP1L1=no
	   (( 0.5 0.5 )	%  MDS1=yes  MDK=yes  PCCB=no  ATP2B4=yes  NAP1L1=yes
	    ( 0.5 0.5 ))))	%  MDS1=yes  MDK=yes  PCCB=no  ATP2B4=yes  NAP1L1=no
	 (((( 0.984848 0.0151515 )	%  MDS1=yes  MDK=no  PCCB=yes  ATP2B4=no  NAP1L1=yes
	    ( 0.357461 0.642539 ))	%  MDS1=yes  MDK=no  PCCB=yes  ATP2B4=no  NAP1L1=no
	   (( 0.970588 0.0294118 )	%  MDS1=yes  MDK=no  PCCB=yes  ATP2B4=yes  NAP1L1=yes
	    ( 0.829897 0.170103 )))	%  MDS1=yes  MDK=no  PCCB=yes  ATP2B4=yes  NAP1L1=no
	  ((( 0.970588 0.0294118 )	%  MDS1=yes  MDK=no  PCCB=no  ATP2B4=no  NAP1L1=yes
	    ( 0.663265 0.336735 ))	%  MDS1=yes  MDK=no  PCCB=no  ATP2B4=no  NAP1L1=no
	   (( 0.5 0.5 )	%  MDS1=yes  MDK=no  PCCB=no  ATP2B4=yes  NAP1L1=yes
	    ( 0.5 0.5 )))))	%  MDS1=yes  MDK=no  PCCB=no  ATP2B4=yes  NAP1L1=no
	((((( 0.5 0.5 )	%  MDS1=no  MDK=yes  PCCB=yes  ATP2B4=no  NAP1L1=yes
	    ( 0.970588 0.0294118 ))	%  MDS1=no  MDK=yes  PCCB=yes  ATP2B4=no  NAP1L1=no
	   (( 0.5 0.5 )	%  MDS1=no  MDK=yes  PCCB=yes  ATP2B4=yes  NAP1L1=yes
	    ( 0.970588 0.0294118 )))	%  MDS1=no  MDK=yes  PCCB=yes  ATP2B4=yes  NAP1L1=no
	  ((( 0.5 0.5 )	%  MDS1=no  MDK=yes  PCCB=no  ATP2B4=no  NAP1L1=yes
	    ( 0.984848 0.0151515 ))	%  MDS1=no  MDK=yes  PCCB=no  ATP2B4=no  NAP1L1=no
	   (( 0.5 0.5 )	%  MDS1=no  MDK=yes  PCCB=no  ATP2B4=yes  NAP1L1=yes
	    ( 0.5 0.5 ))))	%  MDS1=no  MDK=yes  PCCB=no  ATP2B4=yes  NAP1L1=no
	 (((( 0.970588 0.0294118 )	%  MDS1=no  MDK=no  PCCB=yes  ATP2B4=no  NAP1L1=yes
	    ( 0.5 0.5 ))	%  MDS1=no  MDK=no  PCCB=yes  ATP2B4=no  NAP1L1=no
	   (( 0.984848 0.0151515 )	%  MDS1=no  MDK=no  PCCB=yes  ATP2B4=yes  NAP1L1=yes
	    ( 0.970588 0.0294118 )))	%  MDS1=no  MDK=no  PCCB=yes  ATP2B4=yes  NAP1L1=no
	  ((( 0.5 0.5 )	%  MDS1=no  MDK=no  PCCB=no  ATP2B4=no  NAP1L1=yes
	    ( 0.970588 0.0294118 ))	%  MDS1=no  MDK=no  PCCB=no  ATP2B4=no  NAP1L1=no
	   (( 0.5 0.5 )	%  MDS1=no  MDK=no  PCCB=no  ATP2B4=yes  NAP1L1=yes
	    ( 0.5 0.5 ))))));	%  MDS1=no  MDK=no  PCCB=no  ATP2B4=yes  NAP1L1=no
    experience
     = ((((( 2.0625	%  MDS1=yes  MDK=yes  PCCB=yes  ATP2B4=no  NAP1L1=yes
	     1.0625 )	%  MDS1=yes  MDK=yes  PCCB=yes  ATP2B4=no  NAP1L1=no
	   ( 0.0625	%  MDS1=yes  MDK=yes  PCCB=yes  ATP2B4=yes  NAP1L1=yes
	     1.0625 ))	%  MDS1=yes  MDK=yes  PCCB=yes  ATP2B4=yes  NAP1L1=no
	  (( 1.0625	%  MDS1=yes  MDK=yes  PCCB=no  ATP2B4=no  NAP1L1=yes
	     2.0625 )	%  MDS1=yes  MDK=yes  PCCB=no  ATP2B4=no  NAP1L1=no
	   ( 0.0625	%  MDS1=yes  MDK=yes  PCCB=no  ATP2B4=yes  NAP1L1=yes
	     0.0625 )))	%  MDS1=yes  MDK=yes  PCCB=no  ATP2B4=yes  NAP1L1=no
	 ((( 2.0625	%  MDS1=yes  MDK=no  PCCB=yes  ATP2B4=no  NAP1L1=yes
	     28.0625 )	%  MDS1=yes  MDK=no  PCCB=yes  ATP2B4=no  NAP1L1=no
	   ( 1.0625	%  MDS1=yes  MDK=no  PCCB=yes  ATP2B4=yes  NAP1L1=yes
	     6.0625 ))	%  MDS1=yes  MDK=no  PCCB=yes  ATP2B4=yes  NAP1L1=no
	  (( 1.0625	%  MDS1=yes  MDK=no  PCCB=no  ATP2B4=no  NAP1L1=yes
	     3.0625 )	%  MDS1=yes  MDK=no  PCCB=no  ATP2B4=no  NAP1L1=no
	   ( 0.0625	%  MDS1=yes  MDK=no  PCCB=no  ATP2B4=yes  NAP1L1=yes
	     0.0625 ))))	%  MDS1=yes  MDK=no  PCCB=no  ATP2B4=yes  NAP1L1=no
	(((( 0.0625	%  MDS1=no  MDK=yes  PCCB=yes  ATP2B4=no  NAP1L1=yes
	     1.0625 )	%  MDS1=no  MDK=yes  PCCB=yes  ATP2B4=no  NAP1L1=no
	   ( 0.0625	%  MDS1=no  MDK=yes  PCCB=yes  ATP2B4=yes  NAP1L1=yes
	     1.0625 ))	%  MDS1=no  MDK=yes  PCCB=yes  ATP2B4=yes  NAP1L1=no
	  (( 0.0625	%  MDS1=no  MDK=yes  PCCB=no  ATP2B4=no  NAP1L1=yes
	     2.0625 )	%  MDS1=no  MDK=yes  PCCB=no  ATP2B4=no  NAP1L1=no
	   ( 0.0625	%  MDS1=no  MDK=yes  PCCB=no  ATP2B4=yes  NAP1L1=yes
	     0.0625 )))	%  MDS1=no  MDK=yes  PCCB=no  ATP2B4=yes  NAP1L1=no
	 ((( 1.0625	%  MDS1=no  MDK=no  PCCB=yes  ATP2B4=no  NAP1L1=yes
	     0.0625 )	%  MDS1=no  MDK=no  PCCB=yes  ATP2B4=no  NAP1L1=no
	   ( 2.0625	%  MDS1=no  MDK=no  PCCB=yes  ATP2B4=yes  NAP1L1=yes
	     1.0625 ))	%  MDS1=no  MDK=no  PCCB=yes  ATP2B4=yes  NAP1L1=no
	  (( 0.0625	%  MDS1=no  MDK=no  PCCB=no  ATP2B4=no  NAP1L1=yes
	     1.0625 )	%  MDS1=no  MDK=no  PCCB=no  ATP2B4=no  NAP1L1=no
	   ( 0.0625	%  MDS1=no  MDK=no  PCCB=no  ATP2B4=yes  NAP1L1=yes
	     0.0625 )))));	%  MDS1=no  MDK=no  PCCB=no  ATP2B4=yes  NAP1L1=no
}
